<?xml version="1.0"?>
<opencv_storage>
<cascade>
  <stageType>BOOST</stageType>
  <featureType>HOG</featureType>
  <height>24</height>
  <width>24</width>
  <stageParams>
    <boostType>GAB</boostType>
    <minHitRate>9.9500000476837158e-01</minHitRate>
    <maxFalseAlarm>5.0000000000000000e-01</maxFalseAlarm>
    <weightTrimRate>9.4999999999999996e-01</weightTrimRate>
    <maxDepth>1</maxDepth>
    <maxWeakCount>100</maxWeakCount></stageParams>
  <featureParams>
    <maxCatCount>0</maxCatCount>
    <featSize>36</featSize></featureParams>
  <stageNum>15</stageNum>
  <stages>
    <!-- stage 0 -->
    <_>
      <maxWeakCount>5</maxWeakCount>
      <stageThreshold>-1.3406224250793457e+00</stageThreshold>
      <weakClassifiers>
        <_>
          <internalNodes>
            0 -1 64 3.5890299826860428e-02</internalNodes>
          <leafValues>
            -7.3624718189239502e-01 7.1510869264602661e-01</leafValues></_>
        <_>
          <internalNodes>
            0 -1 24 2.5849923491477966e-02</internalNodes>
          <leafValues>
            -7.0318442583084106e-01 5.2823531627655029e-01</leafValues></_>
        <_>
          <internalNodes>
            0 -1 17 2.0410101860761642e-02</internalNodes>
          <leafValues>
            4.5426580309867859e-01 -7.6576447486877441e-01</leafValues></_>
        <_>
          <internalNodes>
            0 -1 21 2.2849552333354950e-02</internalNodes>
          <leafValues>
            -7.0789295434951782e-01 4.9610865116119385e-01</leafValues></_>
        <_>
          <internalNodes>
            0 -1 53 1.4442801475524902e-02</internalNodes>
          <leafValues>
            3.5243636369705200e-01 -7.5214469432830811e-01</leafValues></_></weakClassifiers></_>
    <!-- stage 1 -->
    <_>
      <maxWeakCount>5</maxWeakCount>
      <stageThreshold>-1.1823484897613525e+00</stageThreshold>
      <weakClassifiers>
        <_>
          <internalNodes>
            0 -1 31 2.5924492627382278e-02</internalNodes>
          <leafValues>
            -7.9147982597351074e-01 6.2003779411315918e-01</leafValues></_>
        <_>
          <internalNodes>
            0 -1 0 3.3103115856647491e-02</internalNodes>
          <leafValues>
            -7.2480690479278564e-01 5.8282059431076050e-01</leafValues></_>
        <_>
          <internalNodes>
            0 -1 55 1.4287158846855164e-02</internalNodes>
          <leafValues>
            -7.8368604183197021e-01 3.6862605810165405e-01</leafValues></_>
        <_>
          <internalNodes>
            0 -1 43 4.0006801486015320e-02</internalNodes>
          <leafValues>
            -4.7542160749435425e-01 5.6180751323699951e-01</leafValues></_>
        <_>
          <internalNodes>
            0 -1 12 1.1236499994993210e-02</internalNodes>
          <leafValues>
            4.5745134353637695e-01 -5.9649521112442017e-01</leafValues></_></weakClassifiers></_>
    <!-- stage 2 -->
    <_>
      <maxWeakCount>7</maxWeakCount>
      <stageThreshold>-1.3150384426116943e+00</stageThreshold>
      <weakClassifiers>
        <_>
          <internalNodes>
            0 -1 81 3.2982844859361649e-02</internalNodes>
          <leafValues>
            -6.3438576459884644e-01 5.4353755712509155e-01</leafValues></_>
        <_>
          <internalNodes>
            0 -1 17 1.4047991484403610e-02</internalNodes>
          <leafValues>
            4.5963567495346069e-01 -5.8665651082992554e-01</leafValues></_>
        <_>
          <internalNodes>
            0 -1 71 3.9567500352859497e-02</internalNodes>
          <leafValues>
            -5.7905930280685425e-01 5.1364946365356445e-01</leafValues></_>
        <_>
          <internalNodes>
            0 -1 24 1.8058158457279205e-02</internalNodes>
          <leafValues>
            -8.3742344379425049e-01 2.8238105773925781e-01</leafValues></_>
        <_>
          <internalNodes>
            0 -1 84 9.2540327459573746e-03</internalNodes>
          <leafValues>
            4.3282788991928101e-01 -5.5310314893722534e-01</leafValues></_>
        <_>
          <internalNodes>
            0 -1 21 2.8291948139667511e-02</internalNodes>
          <leafValues>
            -5.7391077280044556e-01 4.0327104926109314e-01</leafValues></_>
        <_>
          <internalNodes>
            0 -1 53 1.4223540201783180e-02</internalNodes>
          <leafValues>
            3.5251417756080627e-01 -6.5842437744140625e-01</leafValues></_></weakClassifiers></_>
    <!-- stage 3 -->
    <_>
      <maxWeakCount>7</maxWeakCount>
      <stageThreshold>-1.2920565605163574e+00</stageThreshold>
      <weakClassifiers>
        <_>
          <internalNodes>
            0 -1 64 5.0962030887603760e-02</internalNodes>
          <leafValues>
            -5.5081737041473389e-01 5.9374129772186279e-01</leafValues></_>
        <_>
          <internalNodes>
            0 -1 77 3.1809523701667786e-02</internalNodes>
          <leafValues>
            3.0845737457275391e-01 -7.6248210668563843e-01</leafValues></_>
        <_>
          <internalNodes>
            0 -1 6 3.4874051809310913e-02</internalNodes>
          <leafValues>
            -5.6326127052307129e-01 3.8152033090591431e-01</leafValues></_>
        <_>
          <internalNodes>
            0 -1 31 1.7244014889001846e-02</internalNodes>
          <leafValues>
            -8.1202739477157593e-01 2.7216425538063049e-01</leafValues></_>
        <_>
          <internalNodes>
            0 -1 33 2.0922094583511353e-02</internalNodes>
          <leafValues>
            3.4998434782028198e-01 -5.3817760944366455e-01</leafValues></_>
        <_>
          <internalNodes>
            0 -1 21 1.9928045570850372e-02</internalNodes>
          <leafValues>
            -7.2568136453628540e-01 2.5986307859420776e-01</leafValues></_>
        <_>
          <internalNodes>
            0 -1 4 6.0847766697406769e-02</internalNodes>
          <leafValues>
            -2.8425538539886475e-01 7.9678386449813843e-01</leafValues></_></weakClassifiers></_>
    <!-- stage 4 -->
    <_>
      <maxWeakCount>7</maxWeakCount>
      <stageThreshold>-1.5771362781524658e+00</stageThreshold>
      <weakClassifiers>
        <_>
          <internalNodes>
            0 -1 72 9.1377809643745422e-02</internalNodes>
          <leafValues>
            -4.1288515925407410e-01 7.3617023229598999e-01</leafValues></_>
        <_>
          <internalNodes>
            0 -1 64 6.2074787914752960e-02</internalNodes>
          <leafValues>
            -4.0549761056900024e-01 5.6731593608856201e-01</leafValues></_>
        <_>
          <internalNodes>
            0 -1 82 1.7957221716642380e-02</internalNodes>
          <leafValues>
            -7.0177233219146729e-01 3.4823328256607056e-01</leafValues></_>
        <_>
          <internalNodes>
            0 -1 20 7.9525552690029144e-02</internalNodes>
          <leafValues>
            -3.1064811348915100e-01 8.6568659543991089e-01</leafValues></_>
        <_>
          <internalNodes>
            0 -1 6 4.3443620204925537e-02</internalNodes>
          <leafValues>
            -4.4485095143318176e-01 5.5748784542083740e-01</leafValues></_>
        <_>
          <internalNodes>
            0 -1 17 2.8932867571711540e-02</internalNodes>
          <leafValues>
            2.8136315941810608e-01 -8.1341648101806641e-01</leafValues></_>
        <_>
          <internalNodes>
            0 -1 28 1.7214933410286903e-02</internalNodes>
          <leafValues>
            3.3559975028038025e-01 -5.4929113388061523e-01</leafValues></_></weakClassifiers></_>
    <!-- stage 5 -->
    <_>
      <maxWeakCount>8</maxWeakCount>
      <stageThreshold>-1.2938258647918701e+00</stageThreshold>
      <weakClassifiers>
        <_>
          <internalNodes>
            0 -1 31 3.7280678749084473e-02</internalNodes>
          <leafValues>
            -6.6099518537521362e-01 2.7258688211441040e-01</leafValues></_>
        <_>
          <internalNodes>
            0 -1 0 4.1207719594240189e-02</internalNodes>
          <leafValues>
            -5.7474166154861450e-01 4.0345925092697144e-01</leafValues></_>
        <_>
          <internalNodes>
            0 -1 68 4.0962211787700653e-02</internalNodes>
          <leafValues>
            -3.6302042007446289e-01 5.0987923145294189e-01</leafValues></_>
        <_>
          <internalNodes>
            0 -1 81 1.9609455019235611e-02</internalNodes>
          <leafValues>
            -7.1349954605102539e-01 3.4050756692886353e-01</leafValues></_>
        <_>
          <internalNodes>
            0 -1 74 1.0030116885900497e-02</internalNodes>
          <leafValues>
            2.9824382066726685e-01 -5.8678400516510010e-01</leafValues></_>
        <_>
          <internalNodes>
            0 -1 11 1.3259044848382473e-02</internalNodes>
          <leafValues>
            3.3463835716247559e-01 -5.5820870399475098e-01</leafValues></_>
        <_>
          <internalNodes>
            0 -1 24 2.3056400939822197e-02</internalNodes>
          <leafValues>
            -7.3574066162109375e-01 1.6891182959079742e-01</leafValues></_>
        <_>
          <internalNodes>
            0 -1 71 2.4212608113884926e-02</internalNodes>
          <leafValues>
            -7.0454406738281250e-01 2.3658429086208344e-01</leafValues></_></weakClassifiers></_>
    <!-- stage 6 -->
    <_>
      <maxWeakCount>9</maxWeakCount>
      <stageThreshold>-1.3150459527969360e+00</stageThreshold>
      <weakClassifiers>
        <_>
          <internalNodes>
            0 -1 21 4.3934859335422516e-02</internalNodes>
          <leafValues>
            -5.6042259931564331e-01 3.7672331929206848e-01</leafValues></_>
        <_>
          <internalNodes>
            0 -1 84 1.0547783225774765e-02</internalNodes>
          <leafValues>
            2.9205539822578430e-01 -5.9409075975418091e-01</leafValues></_>
        <_>
          <internalNodes>
            0 -1 14 1.3148573227226734e-02</internalNodes>
          <leafValues>
            -7.2341966629028320e-01 2.0114912092685699e-01</leafValues></_>
        <_>
          <internalNodes>
            0 -1 62 1.1482508853077888e-02</internalNodes>
          <leafValues>
            3.0352300405502319e-01 -5.4940187931060791e-01</leafValues></_>
        <_>
          <internalNodes>
            0 -1 27 1.3387941755354404e-02</internalNodes>
          <leafValues>
            3.2020604610443115e-01 -4.8450291156768799e-01</leafValues></_>
        <_>
          <internalNodes>
            0 -1 78 1.0988949798047543e-02</internalNodes>
          <leafValues>
            -7.3571622371673584e-01 2.0453013479709625e-01</leafValues></_>
        <_>
          <internalNodes>
            0 -1 5 2.0362826064229012e-02</internalNodes>
          <leafValues>
            -6.4434146881103516e-01 1.9419434666633606e-01</leafValues></_>
        <_>
          <internalNodes>
            0 -1 20 9.2126518487930298e-02</internalNodes>
          <leafValues>
            -2.2026465833187103e-01 8.1562805175781250e-01</leafValues></_>
        <_>
          <internalNodes>
            0 -1 72 7.6519690454006195e-02</internalNodes>
          <leafValues>
            -2.5684559345245361e-01 6.8643975257873535e-01</leafValues></_></weakClassifiers></_>
    <!-- stage 7 -->
    <_>
      <maxWeakCount>12</maxWeakCount>
      <stageThreshold>-1.3418616056442261e+00</stageThreshold>
      <weakClassifiers>
        <_>
          <internalNodes>
            0 -1 39 6.7939996719360352e-02</internalNodes>
          <leafValues>
            -4.1436237096786499e-01 4.6796658635139465e-01</leafValues></_>
        <_>
          <internalNodes>
            0 -1 64 2.9560375958681107e-02</internalNodes>
          <leafValues>
            -6.9492167234420776e-01 2.3241046071052551e-01</leafValues></_>
        <_>
          <internalNodes>
            0 -1 82 1.4029923826456070e-02</internalNodes>
          <leafValues>
            -7.7370506525039673e-01 1.7923986911773682e-01</leafValues></_>
        <_>
          <internalNodes>
            0 -1 12 8.6946291849017143e-03</internalNodes>
          <leafValues>
            3.1117185950279236e-01 -5.4816144704818726e-01</leafValues></_>
        <_>
          <internalNodes>
            0 -1 24 3.5997491329908371e-02</internalNodes>
          <leafValues>
            -4.4831430912017822e-01 3.2193654775619507e-01</leafValues></_>
        <_>
          <internalNodes>
            0 -1 66 6.6411897540092468e-02</internalNodes>
          <leafValues>
            -2.2953417897224426e-01 7.3922151327133179e-01</leafValues></_>
        <_>
          <internalNodes>
            0 -1 47 7.9463340342044830e-02</internalNodes>
          <leafValues>
            -1.6855961084365845e-01 6.5131282806396484e-01</leafValues></_>
        <_>
          <internalNodes>
            0 -1 2 1.6889069229364395e-02</internalNodes>
          <leafValues>
            -6.9685697555541992e-01 1.6243590414524078e-01</leafValues></_>
        <_>
          <internalNodes>
            0 -1 55 1.0627141222357750e-02</internalNodes>
          <leafValues>
            -6.4292216300964355e-01 1.9109459221363068e-01</leafValues></_>
        <_>
          <internalNodes>
            0 -1 44 9.1207191348075867e-02</internalNodes>
          <leafValues>
            -2.4312646687030792e-01 5.6976217031478882e-01</leafValues></_>
        <_>
          <internalNodes>
            0 -1 76 6.1887122690677643e-02</internalNodes>
          <leafValues>
            -1.2710373103618622e-01 7.9626959562301636e-01</leafValues></_>
        <_>
          <internalNodes>
            0 -1 9 2.1655589342117310e-02</internalNodes>
          <leafValues>
            2.5477331876754761e-01 -5.3126597404479980e-01</leafValues></_></weakClassifiers></_>
    <!-- stage 8 -->
    <_>
      <maxWeakCount>13</maxWeakCount>
      <stageThreshold>-1.4713977575302124e+00</stageThreshold>
      <weakClassifiers>
        <_>
          <internalNodes>
            0 -1 81 5.2969679236412048e-02</internalNodes>
          <leafValues>
            -4.5086306333541870e-01 3.6120527982711792e-01</leafValues></_>
        <_>
          <internalNodes>
            0 -1 47 6.8031877279281616e-02</internalNodes>
          <leafValues>
            -2.8493237495422363e-01 5.1899582147598267e-01</leafValues></_>
        <_>
          <internalNodes>
            0 -1 63 2.4997772648930550e-02</internalNodes>
          <leafValues>
            -6.2851279973983765e-01 2.4005962908267975e-01</leafValues></_>
        <_>
          <internalNodes>
            0 -1 56 1.4200596138834953e-02</internalNodes>
          <leafValues>
            -7.1901559829711914e-01 2.4487830698490143e-01</leafValues></_>
        <_>
          <internalNodes>
            0 -1 3 1.4114020392298698e-02</internalNodes>
          <leafValues>
            1.3352477550506592e-01 -7.0865529775619507e-01</leafValues></_>
        <_>
          <internalNodes>
            0 -1 6 1.8840804696083069e-02</internalNodes>
          <leafValues>
            -6.9197648763656616e-01 1.9592376053333282e-01</leafValues></_>
        <_>
          <internalNodes>
            0 -1 70 4.4242635369300842e-02</internalNodes>
          <leafValues>
            1.3925018906593323e-01 -7.6750934123992920e-01</leafValues></_>
        <_>
          <internalNodes>
            0 -1 51 2.5926275178790092e-02</internalNodes>
          <leafValues>
            -3.9744940400123596e-01 3.5105022788047791e-01</leafValues></_>
        <_>
          <internalNodes>
            0 -1 59 1.2825999408960342e-02</internalNodes>
          <leafValues>
            3.6104211211204529e-01 -3.7344175577163696e-01</leafValues></_>
        <_>
          <internalNodes>
            0 -1 52 2.3430697619915009e-02</internalNodes>
          <leafValues>
            1.5504908561706543e-01 -6.6653162240982056e-01</leafValues></_>
        <_>
          <internalNodes>
            0 -1 72 6.2568724155426025e-02</internalNodes>
          <leafValues>
            -2.3595017194747925e-01 4.6486452221870422e-01</leafValues></_>
        <_>
          <internalNodes>
            0 -1 60 3.1751357018947601e-02</internalNodes>
          <leafValues>
            1.6180481016635895e-01 -7.1206688880920410e-01</leafValues></_>
        <_>
          <internalNodes>
            0 -1 24 1.7299652099609375e-02</internalNodes>
          <leafValues>
            -7.9513889551162720e-01 1.2290229648351669e-01</leafValues></_></weakClassifiers></_>
    <!-- stage 9 -->
    <_>
      <maxWeakCount>16</maxWeakCount>
      <stageThreshold>-1.5851364135742188e+00</stageThreshold>
      <weakClassifiers>
        <_>
          <internalNodes>
            0 -1 15 1.0806180536746979e-01</internalNodes>
          <leafValues>
            -3.6045196652412415e-01 5.4082840681076050e-01</leafValues></_>
        <_>
          <internalNodes>
            0 -1 81 2.9097713530063629e-02</internalNodes>
          <leafValues>
            -5.6926923990249634e-01 2.8688967227935791e-01</leafValues></_>
        <_>
          <internalNodes>
            0 -1 41 5.8261547237634659e-02</internalNodes>
          <leafValues>
            -2.2556866705417633e-01 7.4499136209487915e-01</leafValues></_>
        <_>
          <internalNodes>
            0 -1 71 5.2719667553901672e-02</internalNodes>
          <leafValues>
            -3.9156258106231689e-01 3.9125812053680420e-01</leafValues></_>
        <_>
          <internalNodes>
            0 -1 17 1.9371867179870605e-02</internalNodes>
          <leafValues>
            2.2418914735317230e-01 -5.7838535308837891e-01</leafValues></_>
        <_>
          <internalNodes>
            0 -1 55 1.8593497574329376e-02</internalNodes>
          <leafValues>
            -5.0116211175918579e-01 2.0907533168792725e-01</leafValues></_>
        <_>
          <internalNodes>
            0 -1 6 2.6338148862123489e-02</internalNodes>
          <leafValues>
            -5.7711488008499146e-01 1.8468996882438660e-01</leafValues></_>
        <_>
          <internalNodes>
            0 -1 61 9.5763113349676132e-03</internalNodes>
          <leafValues>
            2.4270376563072205e-01 -4.7377040982246399e-01</leafValues></_>
        <_>
          <internalNodes>
            0 -1 46 5.1236730068922043e-02</internalNodes>
          <leafValues>
            -1.8366575241088867e-01 6.3040280342102051e-01</leafValues></_>
        <_>
          <internalNodes>
            0 -1 73 3.1033968552947044e-02</internalNodes>
          <leafValues>
            1.6224518418312073e-01 -6.6643410921096802e-01</leafValues></_>
        <_>
          <internalNodes>
            0 -1 30 1.6368869692087173e-02</internalNodes>
          <leafValues>
            -6.9599246978759766e-01 1.7200650274753571e-01</leafValues></_>
        <_>
          <internalNodes>
            0 -1 54 1.8611311912536621e-02</internalNodes>
          <leafValues>
            1.1608573794364929e-01 -6.5963578224182129e-01</leafValues></_>
        <_>
          <internalNodes>
            0 -1 49 5.5772336199879646e-03</internalNodes>
          <leafValues>
            -5.6130182743072510e-01 1.1051220446825027e-01</leafValues></_>
        <_>
          <internalNodes>
            0 -1 39 5.4436102509498596e-02</internalNodes>
          <leafValues>
            -2.4727992713451385e-01 3.9092066884040833e-01</leafValues></_>
        <_>
          <internalNodes>
            0 -1 29 1.9236035645008087e-02</internalNodes>
          <leafValues>
            1.9019070267677307e-01 -5.6717103719711304e-01</leafValues></_>
        <_>
          <internalNodes>
            0 -1 47 2.5041900575160980e-02</internalNodes>
          <leafValues>
            -3.7964355945587158e-01 2.4527966976165771e-01</leafValues></_></weakClassifiers></_>
    <!-- stage 10 -->
    <_>
      <maxWeakCount>18</maxWeakCount>
      <stageThreshold>-1.4738192558288574e+00</stageThreshold>
      <weakClassifiers>
        <_>
          <internalNodes>
            0 -1 21 3.2169219106435776e-02</internalNodes>
          <leafValues>
            -6.2612980604171753e-01 1.1476127803325653e-01</leafValues></_>
        <_>
          <internalNodes>
            0 -1 68 2.6714976876974106e-02</internalNodes>
          <leafValues>
            -4.0842339396476746e-01 3.0450850725173950e-01</leafValues></_>
        <_>
          <internalNodes>
            0 -1 75 9.5773786306381226e-03</internalNodes>
          <leafValues>
            2.7023947238922119e-01 -4.6172380447387695e-01</leafValues></_>
        <_>
          <internalNodes>
            0 -1 63 1.5272093936800957e-02</internalNodes>
          <leafValues>
            -8.2802194356918335e-01 1.6434131562709808e-01</leafValues></_>
        <_>
          <internalNodes>
            0 -1 72 1.0004165768623352e-01</internalNodes>
          <leafValues>
            -2.1245041489601135e-01 6.0037797689437866e-01</leafValues></_>
        <_>
          <internalNodes>
            0 -1 57 1.1061191558837891e-02</internalNodes>
          <leafValues>
            -6.6471105813980103e-01 1.6299791634082794e-01</leafValues></_>
        <_>
          <internalNodes>
            0 -1 35 6.5851971507072449e-02</internalNodes>
          <leafValues>
            -1.9302652776241302e-01 8.1989574432373047e-01</leafValues></_>
        <_>
          <internalNodes>
            0 -1 26 3.5139527171850204e-02</internalNodes>
          <leafValues>
            2.8273952007293701e-01 -5.3319996595382690e-01</leafValues></_>
        <_>
          <internalNodes>
            0 -1 20 1.4675404131412506e-01</internalNodes>
          <leafValues>
            -1.8412028253078461e-01 8.2637906074523926e-01</leafValues></_>
        <_>
          <internalNodes>
            0 -1 6 3.2136913388967514e-02</internalNodes>
          <leafValues>
            -5.0323683023452759e-01 2.7602851390838623e-01</leafValues></_>
        <_>
          <internalNodes>
            0 -1 32 2.1390154957771301e-02</internalNodes>
          <leafValues>
            2.7758041024208069e-01 -3.6407279968261719e-01</leafValues></_>
        <_>
          <internalNodes>
            0 -1 71 3.9929293096065521e-02</internalNodes>
          <leafValues>
            -4.6368595957756042e-01 1.9748485088348389e-01</leafValues></_>
        <_>
          <internalNodes>
            0 -1 77 3.5763159394264221e-02</internalNodes>
          <leafValues>
            1.2446352094411850e-01 -7.1232587099075317e-01</leafValues></_>
        <_>
          <internalNodes>
            0 -1 16 1.2278474867343903e-02</internalNodes>
          <leafValues>
            1.6971431672573090e-01 -5.0506013631820679e-01</leafValues></_>
        <_>
          <internalNodes>
            0 -1 1 8.7533444166183472e-03</internalNodes>
          <leafValues>
            -7.6088148355484009e-01 9.6286155283451080e-02</leafValues></_>
        <_>
          <internalNodes>
            0 -1 69 2.4034250527620316e-02</internalNodes>
          <leafValues>
            1.1712136119604111e-01 -6.0119062662124634e-01</leafValues></_>
        <_>
          <internalNodes>
            0 -1 81 1.6696892678737640e-02</internalNodes>
          <leafValues>
            -6.2905204296112061e-01 1.1533626168966293e-01</leafValues></_>
        <_>
          <internalNodes>
            0 -1 22 2.3680988699197769e-02</internalNodes>
          <leafValues>
            2.3939821124076843e-01 -2.8679767251014709e-01</leafValues></_></weakClassifiers></_>
    <!-- stage 11 -->
    <_>
      <maxWeakCount>18</maxWeakCount>
      <stageThreshold>-1.3890575170516968e+00</stageThreshold>
      <weakClassifiers>
        <_>
          <internalNodes>
            0 -1 11 7.3935259133577347e-03</internalNodes>
          <leafValues>
            1.5543532371520996e-01 -5.5623722076416016e-01</leafValues></_>
        <_>
          <internalNodes>
            0 -1 47 4.5098938047885895e-02</internalNodes>
          <leafValues>
            -3.4529122710227966e-01 3.3202326297760010e-01</leafValues></_>
        <_>
          <internalNodes>
            0 -1 13 1.0428810492157936e-02</internalNodes>
          <leafValues>
            -7.0092093944549561e-01 1.5685406327247620e-01</leafValues></_>
        <_>
          <internalNodes>
            0 -1 58 1.5052378177642822e-02</internalNodes>
          <leafValues>
            2.3744556307792664e-01 -5.1794749498367310e-01</leafValues></_>
        <_>
          <internalNodes>
            0 -1 50 1.0363480076193810e-02</internalNodes>
          <leafValues>
            -5.1449507474899292e-01 1.9819393754005432e-01</leafValues></_>
        <_>
          <internalNodes>
            0 -1 24 3.3188272267580032e-02</internalNodes>
          <leafValues>
            -4.8680466413497925e-01 1.9419872760772705e-01</leafValues></_>
        <_>
          <internalNodes>
            0 -1 64 7.9792335629463196e-02</internalNodes>
          <leafValues>
            -2.7637395262718201e-01 4.4173967838287354e-01</leafValues></_>
        <_>
          <internalNodes>
            0 -1 72 9.0664438903331757e-03</internalNodes>
          <leafValues>
            -6.4244431257247925e-01 1.4102943241596222e-01</leafValues></_>
        <_>
          <internalNodes>
            0 -1 7 2.9413118958473206e-02</internalNodes>
          <leafValues>
            1.3319028913974762e-01 -6.0283905267715454e-01</leafValues></_>
        <_>
          <internalNodes>
            0 -1 20 1.1726525425910950e-01</internalNodes>
          <leafValues>
            -1.2584246695041656e-01 7.4850183725357056e-01</leafValues></_>
        <_>
          <internalNodes>
            0 -1 25 1.1921368539333344e-02</internalNodes>
          <leafValues>
            -5.3272330760955811e-01 1.5353047847747803e-01</leafValues></_>
        <_>
          <internalNodes>
            0 -1 9 3.1294472515583038e-02</internalNodes>
          <leafValues>
            1.0854234546422958e-01 -7.1695941686630249e-01</leafValues></_>
        <_>
          <internalNodes>
            0 -1 31 4.0489893406629562e-02</internalNodes>
          <leafValues>
            -4.1534179449081421e-01 2.0145218074321747e-01</leafValues></_>
        <_>
          <internalNodes>
            0 -1 10 5.1132753491401672e-02</internalNodes>
          <leafValues>
            1.6285450756549835e-01 -6.2644255161285400e-01</leafValues></_>
        <_>
          <internalNodes>
            0 -1 48 1.0148879885673523e-01</internalNodes>
          <leafValues>
            -1.2334941327571869e-01 9.3999546766281128e-01</leafValues></_>
        <_>
          <internalNodes>
            0 -1 67 3.1377155333757401e-02</internalNodes>
          <leafValues>
            -2.1004642546176910e-01 3.9335045218467712e-01</leafValues></_>
        <_>
          <internalNodes>
            0 -1 43 3.3864349126815796e-02</internalNodes>
          <leafValues>
            -4.0233471989631653e-01 2.2060269117355347e-01</leafValues></_>
        <_>
          <internalNodes>
            0 -1 81 2.4175606667995453e-02</internalNodes>
          <leafValues>
            -5.3801447153091431e-01 1.4649106562137604e-01</leafValues></_></weakClassifiers></_>
    <!-- stage 12 -->
    <_>
      <maxWeakCount>17</maxWeakCount>
      <stageThreshold>-1.5283808708190918e+00</stageThreshold>
      <weakClassifiers>
        <_>
          <internalNodes>
            0 -1 47 6.9394186139106750e-02</internalNodes>
          <leafValues>
            -4.0411701798439026e-01 3.6268344521522522e-01</leafValues></_>
        <_>
          <internalNodes>
            0 -1 21 4.1322454810142517e-02</internalNodes>
          <leafValues>
            -4.2891752719879150e-01 3.2439431548118591e-01</leafValues></_>
        <_>
          <internalNodes>
            0 -1 23 4.7706142067909241e-03</internalNodes>
          <leafValues>
            -6.3935750722885132e-01 1.6442106664180756e-01</leafValues></_>
        <_>
          <internalNodes>
            0 -1 18 2.7672916650772095e-02</internalNodes>
          <leafValues>
            -4.5204207301139832e-01 2.4177692830562592e-01</leafValues></_>
        <_>
          <internalNodes>
            0 -1 79 1.8036969006061554e-02</internalNodes>
          <leafValues>
            2.7294319868087769e-01 -4.7651553153991699e-01</leafValues></_>
        <_>
          <internalNodes>
            0 -1 68 4.9428455531597137e-02</internalNodes>
          <leafValues>
            -2.1507063508033752e-01 4.1166263818740845e-01</leafValues></_>
        <_>
          <internalNodes>
            0 -1 27 1.5204342082142830e-02</internalNodes>
          <leafValues>
            1.8043281137943268e-01 -5.3978478908538818e-01</leafValues></_>
        <_>
          <internalNodes>
            0 -1 63 3.5331308841705322e-02</internalNodes>
          <leafValues>
            -4.5183297991752625e-01 2.1988308429718018e-01</leafValues></_>
        <_>
          <internalNodes>
            0 -1 0 2.4511061608791351e-02</internalNodes>
          <leafValues>
            -6.0637038946151733e-01 1.1866661161184311e-01</leafValues></_>
        <_>
          <internalNodes>
            0 -1 46 5.5852707475423813e-02</internalNodes>
          <leafValues>
            -2.0060706138610840e-01 5.5949079990386963e-01</leafValues></_>
        <_>
          <internalNodes>
            0 -1 70 4.7096960246562958e-02</internalNodes>
          <leafValues>
            1.7091691493988037e-01 -7.5460040569305420e-01</leafValues></_>
        <_>
          <internalNodes>
            0 -1 56 9.9313985556364059e-03</internalNodes>
          <leafValues>
            -8.2898473739624023e-01 7.1125678718090057e-02</leafValues></_>
        <_>
          <internalNodes>
            0 -1 44 8.1008180975914001e-02</internalNodes>
          <leafValues>
            -2.2478158771991730e-01 5.0140923261642456e-01</leafValues></_>
        <_>
          <internalNodes>
            0 -1 41 4.9183525145053864e-02</internalNodes>
          <leafValues>
            -1.7514853179454803e-01 5.4236346483230591e-01</leafValues></_>
        <_>
          <internalNodes>
            0 -1 24 2.2995878010988235e-02</internalNodes>
          <leafValues>
            -6.2062096595764160e-01 1.4003455638885498e-01</leafValues></_>
        <_>
          <internalNodes>
            0 -1 65 8.3655446767807007e-02</internalNodes>
          <leafValues>
            -1.1075604707002640e-01 8.3383607864379883e-01</leafValues></_>
        <_>
          <internalNodes>
            0 -1 72 5.1452233456075191e-03</internalNodes>
          <leafValues>
            -8.5186183452606201e-01 1.1736105382442474e-01</leafValues></_></weakClassifiers></_>
    <!-- stage 13 -->
    <_>
      <maxWeakCount>17</maxWeakCount>
      <stageThreshold>-1.3591693639755249e+00</stageThreshold>
      <weakClassifiers>
        <_>
          <internalNodes>
            0 -1 38 5.2845712751150131e-02</internalNodes>
          <leafValues>
            -4.0811872482299805e-01 3.5980150103569031e-01</leafValues></_>
        <_>
          <internalNodes>
            0 -1 21 5.4593227803707123e-02</internalNodes>
          <leafValues>
            -2.9928016662597656e-01 3.7089517712593079e-01</leafValues></_>
        <_>
          <internalNodes>
            0 -1 41 8.3489090204238892e-02</internalNodes>
          <leafValues>
            -1.1474638432264328e-01 8.5224944353103638e-01</leafValues></_>
        <_>
          <internalNodes>
            0 -1 63 4.2877808213233948e-02</internalNodes>
          <leafValues>
            -3.6372011899948120e-01 2.6322546601295471e-01</leafValues></_>
        <_>
          <internalNodes>
            0 -1 39 3.6324299871921539e-02</internalNodes>
          <leafValues>
            -3.7453779578208923e-01 2.7131569385528564e-01</leafValues></_>
        <_>
          <internalNodes>
            0 -1 37 2.2815369069576263e-02</internalNodes>
          <leafValues>
            -2.7475804090499878e-01 3.8186767697334290e-01</leafValues></_>
        <_>
          <internalNodes>
            0 -1 74 1.6745243221521378e-02</internalNodes>
          <leafValues>
            2.0182274281978607e-01 -5.9707731008529663e-01</leafValues></_>
        <_>
          <internalNodes>
            0 -1 72 6.2432765960693359e-02</internalNodes>
          <leafValues>
            -2.9607170820236206e-01 3.1710669398307800e-01</leafValues></_>
        <_>
          <internalNodes>
            0 -1 57 1.5056081116199493e-02</internalNodes>
          <leafValues>
            -5.7249605655670166e-01 2.4506747722625732e-01</leafValues></_>
        <_>
          <internalNodes>
            0 -1 35 6.3392981886863708e-02</internalNodes>
          <leafValues>
            -1.6251473128795624e-01 8.6196309328079224e-01</leafValues></_>
        <_>
          <internalNodes>
            0 -1 45 6.2886632978916168e-02</internalNodes>
          <leafValues>
            1.4961025118827820e-01 -8.4318941831588745e-01</leafValues></_>
        <_>
          <internalNodes>
            0 -1 8 9.8630804568529129e-03</internalNodes>
          <leafValues>
            3.0543574690818787e-01 -3.1441056728363037e-01</leafValues></_>
        <_>
          <internalNodes>
            0 -1 20 9.1686412692070007e-02</internalNodes>
          <leafValues>
            -1.4884461462497711e-01 6.2950927019119263e-01</leafValues></_>
        <_>
          <internalNodes>
            0 -1 81 4.7554939985275269e-02</internalNodes>
          <leafValues>
            -2.5388187170028687e-01 3.9342048764228821e-01</leafValues></_>
        <_>
          <internalNodes>
            0 -1 19 3.3247128129005432e-02</internalNodes>
          <leafValues>
            -1.9140383601188660e-01 4.9204510450363159e-01</leafValues></_>
        <_>
          <internalNodes>
            0 -1 14 7.2699105367064476e-03</internalNodes>
          <leafValues>
            -8.3790999650955200e-01 1.0992822796106339e-01</leafValues></_>
        <_>
          <internalNodes>
            0 -1 34 1.1778222396969795e-02</internalNodes>
          <leafValues>
            3.2928374409675598e-01 -2.5306376814842224e-01</leafValues></_></weakClassifiers></_>
    <!-- stage 14 -->
    <_>
      <maxWeakCount>17</maxWeakCount>
      <stageThreshold>-1.4514578580856323e+00</stageThreshold>
      <weakClassifiers>
        <_>
          <internalNodes>
            0 -1 12 2.0487713627517223e-03</internalNodes>
          <leafValues>
            3.0564263463020325e-01 -4.0017986297607422e-01</leafValues></_>
        <_>
          <internalNodes>
            0 -1 69 2.1419063210487366e-02</internalNodes>
          <leafValues>
            1.7321114242076874e-01 -6.5595704317092896e-01</leafValues></_>
        <_>
          <internalNodes>
            0 -1 83 1.2617522850632668e-02</internalNodes>
          <leafValues>
            3.4506133198738098e-01 -3.1141152977943420e-01</leafValues></_>
        <_>
          <internalNodes>
            0 -1 10 3.9792377501726151e-02</internalNodes>
          <leafValues>
            2.5136303901672363e-01 -5.1087915897369385e-01</leafValues></_>
        <_>
          <internalNodes>
            0 -1 21 1.7012413591146469e-02</internalNodes>
          <leafValues>
            -7.2392916679382324e-01 1.2979033589363098e-01</leafValues></_>
        <_>
          <internalNodes>
            0 -1 68 3.6797821521759033e-02</internalNodes>
          <leafValues>
            -3.4320107102394104e-01 3.6865594983100891e-01</leafValues></_>
        <_>
          <internalNodes>
            0 -1 74 3.2425679266452789e-02</internalNodes>
          <leafValues>
            1.3146075606346130e-01 -8.8139671087265015e-01</leafValues></_>
        <_>
          <internalNodes>
            0 -1 71 2.5853399187326431e-02</internalNodes>
          <leafValues>
            -7.2449868917465210e-01 1.1784271150827408e-01</leafValues></_>
        <_>
          <internalNodes>
            0 -1 24 7.0737652480602264e-02</internalNodes>
          <leafValues>
            -1.8372449278831482e-01 6.0313779115676880e-01</leafValues></_>
        <_>
          <internalNodes>
            0 -1 36 1.1294751428067684e-02</internalNodes>
          <leafValues>
            -3.3397215604782104e-01 2.7625656127929688e-01</leafValues></_>
        <_>
          <internalNodes>
            0 -1 77 2.8173103928565979e-02</internalNodes>
          <leafValues>
            1.8164637684822083e-01 -6.3243186473846436e-01</leafValues></_>
        <_>
          <internalNodes>
            0 -1 0 5.0291247665882111e-02</internalNodes>
          <leafValues>
            -3.4147360920906067e-01 3.0033844709396362e-01</leafValues></_>
        <_>
          <internalNodes>
            0 -1 40 5.3304374217987061e-02</internalNodes>
          <leafValues>
            -1.2721472978591919e-01 8.6329984664916992e-01</leafValues></_>
        <_>
          <internalNodes>
            0 -1 80 3.9422884583473206e-02</internalNodes>
          <leafValues>
            1.6133478283882141e-01 -7.4578231573104858e-01</leafValues></_>
        <_>
          <internalNodes>
            0 -1 20 1.4944960176944733e-01</internalNodes>
          <leafValues>
            -1.3552916049957275e-01 8.2087647914886475e-01</leafValues></_>
        <_>
          <internalNodes>
            0 -1 6 2.8695791959762573e-02</internalNodes>
          <leafValues>
            -5.1466548442840576e-01 1.9668522477149963e-01</leafValues></_>
        <_>
          <internalNodes>
            0 -1 42 2.6046145707368851e-02</internalNodes>
          <leafValues>
            -4.3036159873008728e-01 2.7266660332679749e-01</leafValues></_></weakClassifiers></_></stages>
  <features>
    <_>
      <rect>
        0 0 8 8 1</rect></_>
    <_>
      <rect>
        0 0 8 8 2</rect></_>
    <_>
      <rect>
        0 0 8 8 13</rect></_>
    <_>
      <rect>
        0 0 8 8 21</rect></_>
    <_>
      <rect>
        0 0 8 8 33</rect></_>
    <_>
      <rect>
        0 4 8 8 0</rect></_>
    <_>
      <rect>
        0 4 8 8 1</rect></_>
    <_>
      <rect>
        0 4 8 8 3</rect></_>
    <_>
      <rect>
        0 4 8 8 4</rect></_>
    <_>
      <rect>
        0 4 8 8 7</rect></_>
    <_>
      <rect>
        0 4 8 8 13</rect></_>
    <_>
      <rect>
        0 4 8 8 19</rect></_>
    <_>
      <rect>
        0 4 8 8 20</rect></_>
    <_>
      <rect>
        0 4 8 8 24</rect></_>
    <_>
      <rect>
        0 4 8 8 25</rect></_>
    <_>
      <rect>
        0 4 8 8 35</rect></_>
    <_>
      <rect>
        0 8 8 8 3</rect></_>
    <_>
      <rect>
        0 8 8 8 4</rect></_>
    <_>
      <rect>
        0 8 8 8 8</rect></_>
    <_>
      <rect>
        0 8 8 8 11</rect></_>
    <_>
      <rect>
        0 8 8 8 15</rect></_>
    <_>
      <rect>
        0 8 8 8 24</rect></_>
    <_>
      <rect>
        0 8 8 8 26</rect></_>
    <_>
      <rect>
        0 8 8 8 30</rect></_>
    <_>
      <rect>
        4 0 8 8 2</rect></_>
    <_>
      <rect>
        4 0 8 8 3</rect></_>
    <_>
      <rect>
        4 0 8 8 4</rect></_>
    <_>
      <rect>
        4 0 8 8 7</rect></_>
    <_>
      <rect>
        4 0 8 8 8</rect></_>
    <_>
      <rect>
        4 0 8 8 11</rect></_>
    <_>
      <rect>
        4 0 8 8 13</rect></_>
    <_>
      <rect>
        4 0 8 8 14</rect></_>
    <_>
      <rect>
        4 0 8 8 16</rect></_>
    <_>
      <rect>
        4 0 8 8 17</rect></_>
    <_>
      <rect>
        4 0 8 8 18</rect></_>
    <_>
      <rect>
        4 0 8 8 23</rect></_>
    <_>
      <rect>
        4 0 8 8 30</rect></_>
    <_>
      <rect>
        4 0 8 8 32</rect></_>
    <_>
      <rect>
        4 0 8 8 35</rect></_>
    <_>
      <rect>
        4 4 8 8 1</rect></_>
    <_>
      <rect>
        4 4 8 8 5</rect></_>
    <_>
      <rect>
        4 4 8 8 6</rect></_>
    <_>
      <rect>
        4 4 8 8 14</rect></_>
    <_>
      <rect>
        4 4 8 8 15</rect></_>
    <_>
      <rect>
        4 4 8 8 26</rect></_>
    <_>
      <rect>
        4 4 8 8 28</rect></_>
    <_>
      <rect>
        4 4 8 8 30</rect></_>
    <_>
      <rect>
        4 4 8 8 35</rect></_>
    <_>
      <rect>
        4 8 8 8 5</rect></_>
    <_>
      <rect>
        4 8 8 8 12</rect></_>
    <_>
      <rect>
        4 8 8 8 13</rect></_>
    <_>
      <rect>
        4 8 8 8 14</rect></_>
    <_>
      <rect>
        4 8 8 8 18</rect></_>
    <_>
      <rect>
        4 8 8 8 19</rect></_>
    <_>
      <rect>
        4 8 8 8 20</rect></_>
    <_>
      <rect>
        4 8 8 8 23</rect></_>
    <_>
      <rect>
        4 8 8 8 24</rect></_>
    <_>
      <rect>
        4 8 8 8 29</rect></_>
    <_>
      <rect>
        4 8 8 8 33</rect></_>
    <_>
      <rect>
        4 8 8 8 34</rect></_>
    <_>
      <rect>
        8 0 8 8 8</rect></_>
    <_>
      <rect>
        8 0 8 8 10</rect></_>
    <_>
      <rect>
        8 0 8 8 11</rect></_>
    <_>
      <rect>
        8 0 8 8 14</rect></_>
    <_>
      <rect>
        8 0 8 8 15</rect></_>
    <_>
      <rect>
        8 0 8 8 23</rect></_>
    <_>
      <rect>
        8 0 8 8 24</rect></_>
    <_>
      <rect>
        8 4 8 8 1</rect></_>
    <_>
      <rect>
        8 4 8 8 6</rect></_>
    <_>
      <rect>
        8 4 8 8 9</rect></_>
    <_>
      <rect>
        8 4 8 8 13</rect></_>
    <_>
      <rect>
        8 4 8 8 15</rect></_>
    <_>
      <rect>
        8 4 8 8 26</rect></_>
    <_>
      <rect>
        8 4 8 8 31</rect></_>
    <_>
      <rect>
        8 4 8 8 32</rect></_>
    <_>
      <rect>
        8 4 8 8 33</rect></_>
    <_>
      <rect>
        8 8 8 8 5</rect></_>
    <_>
      <rect>
        8 8 8 8 13</rect></_>
    <_>
      <rect>
        8 8 8 8 16</rect></_>
    <_>
      <rect>
        8 8 8 8 19</rect></_>
    <_>
      <rect>
        8 8 8 8 20</rect></_>
    <_>
      <rect>
        8 8 8 8 28</rect></_>
    <_>
      <rect>
        8 8 8 8 29</rect></_>
    <_>
      <rect>
        8 8 8 8 31</rect></_>
    <_>
      <rect>
        8 8 8 8 33</rect></_></features></cascade>
</opencv_storage>
